0.11683115,0.07595824,0.13947372,-0.029208418,-0.09932274,-0.06478845,-0.022891533,0.036802262,-0.021680534,-0.088713884,-0.013110631,0.098353185,0.093571894,-0.05209682,-0.051762655,-0.024787858,0.07479719,0.0753666,-0.027862795,0.061509054,-0.037928715,-0.031701528,-0.08151598,0.077707306,-0.1048494,0.024983745,-0.04275491,-0.1053817,0.0098702125,0.026990533,-0.11468442,-0.0076029655,-0.030168796,0.0011749417,-0.05574143,-0.010580527,0.093021445,-0.13290371,-0.056529384,0.09150113,-0.010454137,-0.025969923,0.03281639,-0.052795663,0.034616277,-0.077106535,-0.03758055,0.11388661,0.032252666,-0.08686657,0.094797954,-0.08307055,-0.018464979,0.017384877,-0.055082634,0.038759843,0.004340601,0.05024192,0.05976271,-0.10700166,0.113332585,0.022993106,0.07989708,0.061798573
-0.017285947,-0.04410249,-0.03890086,-0.059182912,0.07761813,0.12619834,0.06135093,0.12906258,0.04697639,0.0020679012,-0.049717262,0.12464587,-0.09487417,0.10725296,-0.008523963,-0.049384892,0.010065184,0.08644876,-0.110743865,-0.08946509,-0.022877902,-0.123892516,0.03339196,-0.069010995,-0.11219701,-0.06747725,-0.059538998,-0.00064457953,0.10374653,-0.04118152,0.029215567,0.0401513,0.051450547,-0.010556262,0.0018255273,0.08502282,-0.1088126,-0.04977925,0.117897645,-0.052787557,0.09697742,-0.099864915,0.023829892,-0.0036543906,-0.11740586,0.037761107,-0.0132561475,-0.11472739,-0.021362703,0.11027855,0.039635174,-0.07633145,-0.047821216,-0.03886058,-0.06477706,0.0078094224,-0.058681965,0.068941504,0.062301762,0.072354525,0.018461883,0.12202682,-0.12391991,-0.084880166
-0.0754298,0.038596395,-0.11394297,-0.059230134,0.052794993,0.13387062,0.10135342,0.0714939,-0.08828136,0.02123859,-0.04551989,0.027107619,-0.035856556,0.13699147,0.10148826,-0.003621466,-0.11410115,0.117934965,0.105541,0.038642757,-0.12353642,-0.08305375,0.085423976,-0.11243869,0.036663365,0.010804027,0.119579375,0.026096169,0.08560925,0.02939426,-0.05900526,-0.06790954,-0.12120268,-0.019506931,0.018559981,-0.044557337,0.016684333,0.074976355,0.028975794,-0.064194635,-0.10891904,-0.06424326,0.030572738,-0.116405696,-0.12419696,-0.009900549,0.01981058,-0.102475874,0.049182985,0.06812816,-0.105325505,-0.018560037,0.05985597,0.098413974,-0.087425455,-0.048549555,-0.07079312,-0.08311094,-0.08865982,0.08502019,0.013569191,-0.07646105,-0.108254336,-0.111333065
-0.10167556,0.019107869,-0.003425934,0.053238314,0.086741626,0.104843244,0.10608606,-0.041083634,-0.094120294,-0.011539102,-0.026915103,-0.025371185,0.01416954,-0.07031806,-0.10672106,-0.05141872,0.005611852,0.08056612,-0.112102866,-0.11226617,-0.0071549416,-0.047909245,-0.050947726,-0.12614411,0.0394498,-0.038407408,0.11839569,-0.08027288,-0.11357927,-0.016196571,0.029678896,0.09205981,-0.014780402,0.109512895,-0.06820366,-0.10588567,-0.0815963,-0.049942166,0.060004354,0.11746422,0.1367064,-0.059468344,-0.049722325,-0.020259023,0.06371098,-0.03843099,-0.044415087,0.04057076,-0.079629004,0.12391929,-0.12737875,-0.110430524,-0.0067673773,-0.08830468,-0.054469034,0.091546044,0.0005636215,-0.024581201,-0.13273454,-0.040820092,-0.0606833,0.10973262,0.053104263,0.0035723513
0.091492504,0.058193654,-0.014276652,-0.041829303,0.11342329,-0.067947164,0.029596165,0.06481231,0.05875747,-0.07036947,0.009615123,0.03226417,0.09962851,-0.05942917,-0.106534556,-0.088134184,0.108018994,0.054899137,0.04941012,-0.09997335,-0.104761705,0.009798735,-0.052253067,-0.1272688,-0.10669848,-0.019795131,-0.024500608,-0.095232785,-0.04762152,-0.057367146,0.1114694,-0.056161463,-0.027555943,0.08737444,-0.080061,-0.008477271,-0.07561381,0.051126465,0.07649593,0.022579648,-0.069328204,0.04049529,-0.042903177,-0.102159575,0.0969069,0.09028117,-0.041687056,0.082749985,0.015190162,0.044879988,0.015869703,0.09994465,0.07021694,-0.0098160505,0.0026956499,0.1017314,0.074166805,-0.13820826,-0.0052927607,-0.03617005,-0.047482174,0.013540697,-0.055509217,0.050744943
-0.14283583,0.10387336,0.01722519,0.065177076,0.03670931,0.08616097,-0.12312488,0.046214715,0.025062874,0.0819418,0.11390265,0.09809298,0.065311775,0.10496278,0.014677405,0.08662749,0.0016063694,-0.1221535,-0.02512911,-0.07470994,0.03495586,-0.034484208,-0.075659916,-0.09270999,-0.06639168,0.087490864,-0.013345376,0.05945678,-0.060462296,0.012980098,-0.11879979,0.036164775,-0.09447263,0.12003053,-0.07561807,0.113973245,0.025780577,0.0642606,-0.11813593,0.12902103,-0.066372916,0.042522863,-0.020928215,0.03330621,0.06636288,-0.013919726,-0.09896977,-0.086962424,0.067462854,0.0284722,-0.09585299,0.07013647,0.070925646,0.09909809,0.02530013,0.07828307,-0.09842189,-0.04900544,0.031261392,0.0005970448,-0.03229502,-0.033030704,-0.06364904,0.09499432
-0.06924349,0.06658964,-0.09127052,0.061415423,-0.10291885,0.040683076,-0.060108587,0.1063903,-0.09583834,0.124322176,0.13133778,0.06276034,0.10363909,-0.119598866,-0.0048520565,-0.10168114,0.06265689,0.0031467113,0.07337019,-0.008808256,0.036115475,0.081160635,-0.08737247,0.13116935,-0.122556195,-0.026221419,-0.029590532,-0.037676036,0.10739452,-0.09488335,0.004759684,-0.010134508,0.044262514,-0.028665468,0.09583373,0.13231249,-0.08929735,-0.03801295,-0.08885981,0.056163736,-0.1158206,-0.04183224,-0.0749408,0.013676241,-0.05821363,0.09585634,0.03776443,0.0110462755,0.09205293,-0.011080816,0.044919156,-0.05858095,0.03595467,-0.038452268,0.09441079,-0.07025128,-0.020582497,-0.12628348,0.058705956,-0.07663903,0.12858286,0.02097623,-0.023762846,-0.030153627
